<?xml version="1.0"?>
<opencv_storage>
<opencv_ml_ann_mlp>
  <format>3</format>
  <layer_sizes>
    81 20 10</layer_sizes>
  <activation_function>SIGMOID_SYM</activation_function>
  <f_param1>6.6666666666666663e-01</f_param1>
  <f_param2>1.7159000000000000e+00</f_param2>
  <min_val>-9.4999999999999996e-01</min_val>
  <max_val>9.4999999999999996e-01</max_val>
  <min_val1>-9.7999999999999998e-01</min_val1>
  <max_val1>9.7999999999999998e-01</max_val1>
  <training_params>
    <train_method>BACKPROP</train_method>
    <dw_scale>3.9999999105930328e-02</dw_scale>
    <moment_scale>8.5000002384185791e-01</moment_scale>
    <term_criteria>
      <epsilon>1.0000000000000000e-02</epsilon>
      <iterations>1000</iterations></term_criteria></training_params>
  <input_scale>
    5.5475352267161134e+02 -1.3868838480113867e-02
    1.4886144645529703e+02 -3.9769248396073355e-02
    5.0480688405282280e+01 -8.8152076296945603e-02
    2.0893037910233755e+01 -1.9683063092150838e-01
    9.8030783813434095e+00 -3.4703606317120766e-01
    5.7784952828033145e+00 -5.6114681122553312e-01
    4.3940962328892992e+00 -8.1111309797306508e-01
    3.7682423977105315e+00 -1.1212867743670667e+00
    3.6093452650694449e+00 -1.5226804673524361e+00
    3.6905065650228446e+00 -1.9550761438660060e+00
    3.7753467999635091e+00 -2.3126252275253920e+00
    3.8672455230828149e+00 -2.5633592145587465e+00
    4.2369953729533343e+00 -2.9607403688759022e+00
    4.5495128234753253e+00 -3.3575957362839368e+00
    4.7522330835276332e+00 -3.6382904531021234e+00
    5.1576895197275103e+00 -4.0461980397159047e+00
    4.8804301896468658e+00 -3.7850657410611444e+00
    4.0391656233908035e+00 -2.9412247866861909e+00
    3.6521171184577406e+00 -2.3591685790423043e+00
    3.4040774168945638e+00 -1.7839412794166596e+00
    3.3778342695009296e+00 -1.3210605512617182e+00
    3.6374409767562330e+00 -9.7646472701071996e-01
    4.3223791830819920e+00 -7.2947877681187867e-01
    5.7630068205955132e+00 -5.3950853678015498e-01
    9.1100237345709285e+00 -3.8828545894329464e-01
    1.9836169036480914e+01 -2.3303013294751090e-01
    4.6345396005795877e+01 -1.1444679205707753e-01
    1.5320145573785567e+02 -3.8772584083258628e-02 1. 0.
    6.4617831939610639e+01 -6.5145110386046048e-02
    1.6131700158866551e+01 -2.4060776719098853e-01
    8.0467262785468758e+00 -3.8834485111141726e-01
    3.8469656542686943e+00 -7.8737635946032325e-01
    3.2237968894353051e+00 -1.2977187064380615e+00
    3.3456403411107023e+00 -1.8442361487021837e+00
    3.9869951558388537e+00 -2.6169612374297109e+00
    4.0317589077595199e+00 -2.7189191447479462e+00
    3.9907361094056490e+00 -2.5997525954574976e+00
    4.1510322506363799e+00 -2.5793439119872477e+00
    4.2938725923396071e+00 -2.6187926155815466e+00
    4.3198071576421517e+00 -2.6891757044977269e+00
    4.2494465653152487e+00 -2.7541088835632044e+00
    4.1390206535523522e+00 -2.7612678251589085e+00
    4.0244555531961987e+00 -2.6854407535598850e+00
    3.9777239879352653e+00 -2.5562469087471449e+00
    3.9551308210102496e+00 -2.4174203917521133e+00
    3.8913988746953594e+00 -2.3154322475423901e+00
    3.7970104357804075e+00 -2.2944336721548293e+00
    3.6668511920506792e+00 -2.2812791502131056e+00
    3.5950049974639668e+00 -2.1999900284018143e+00
    3.3659279256122883e+00 -1.8092441202601091e+00
    3.4646845468316001e+00 -1.4564761303771692e+00
    4.1682513024773709e+00 -8.6294170198910503e-01
    7.4448184181086194e+00 -5.2749441381360673e-01
    1.3074363059831819e+01 -3.2235501241654130e-01
    5.2606774599027112e+01 -9.2723402777147579e-02 1. 0.
    1.2597337882442292e-01 -7.0397199470841387e-02
    3.6379512353818214e-02 -2.2288181444635960e-01
    5.3104296402149628e-02 -1.4014813546829144e-01
    1.1156548378151003e+00 -2.4037900662629053e-02
    1.1640322645860048e-01 -6.7432621533780435e-02
    1.1983500229633725e-02 -5.5381385945058448e-01
    9.7573743562174037e-03 -1.2117736903082417e+00
    9.5362926787921579e-03 -9.2732558619366900e-01
    4.1622059066298150e-02 -1.6763188769726600e-01
    2.6262276437694060e-01 -4.4976776230743136e-02
    1.0167509923129363e-02 -7.4341949458480217e-01
    9.9491953489543958e-03 -1.1418557187857750e+00
    1.0394971250974610e-02 -8.0596671619266114e-01
    7.0262866680903036e-02 -1.4941153160990894e-01
    1.1914734502084841e-01 -8.9744046123229365e-02
    1.0403387153049299e-02 -6.5314784224612965e-01
    9.9049002585085925e-03 -1.0856030193089055e+00
    9.9612171908969090e-03 -7.3970048408571798e-01
    6.8879513264042569e-02 -1.0966589898119823e-01
    2.8201660326322591e+00 -2.4188565123911061e-02
    3.0194904191336896e-02 -2.4223203661762860e-01
    1.7410856382075984e-02 -4.8336098454870752e-01
    4.3314165048917545e-02 -1.5766209019343919e-01
    2.0745120518068045e+00 -2.2396433392820603e-02</input_scale>
  <output_scale>
    5.2631578947368418e-01 4.9999999999999994e-01 5.2631578947368418e-01
    4.9999999999999994e-01 5.2631578947368418e-01 4.9999999999999994e-01
    5.2631578947368418e-01 4.9999999999999994e-01 5.2631578947368418e-01
    4.9999999999999994e-01 5.2631578947368418e-01 4.9999999999999994e-01
    5.2631578947368418e-01 4.9999999999999994e-01 5.2631578947368418e-01
    4.9999999999999994e-01 5.2631578947368418e-01 4.9999999999999994e-01
    5.2631578947368418e-01 4.9999999999999994e-01</output_scale>
  <inv_output_scale>
    1.8999999999999999e+00 -9.4999999999999996e-01
    1.8999999999999999e+00 -9.4999999999999996e-01
    1.8999999999999999e+00 -9.4999999999999996e-01
    1.8999999999999999e+00 -9.4999999999999996e-01
    1.8999999999999999e+00 -9.4999999999999996e-01
    1.8999999999999999e+00 -9.4999999999999996e-01
    1.8999999999999999e+00 -9.4999999999999996e-01
    1.8999999999999999e+00 -9.4999999999999996e-01
    1.8999999999999999e+00 -9.4999999999999996e-01
    1.8999999999999999e+00 -9.4999999999999996e-01</inv_output_scale>
  <weights>
    <_>
      -1.2463983179310653e-01 -1.9573372930501934e-01
      1.5941149515471692e-01 1.0607162317163481e-02
      -3.2942776126846274e-01 -1.0321433073239339e-01
      -5.4447267340825285e-02 -9.4284256316112058e-01
      3.4738838892901934e-02 3.6424307128707168e-03
      6.8825087432817525e-02 3.2837995118826242e-02
      -2.7880939470177457e-01 2.3484366822361907e-02
      5.6382353635394317e-02 -4.5187572025654682e-02
      -1.0918934799058890e+00 1.1001952761656139e-01
      1.3292747666686613e-01 9.7725195889592512e-02
      5.2075052973453018e-01 1.8679290918604288e+00
      -1.4341255556283583e-01 4.7702277792851695e-02
      -1.1856308654455905e+00 1.3531398099967901e-01
      -5.3804464768987248e-01 2.3165251749043088e+00
      -4.3371499701805322e-01 -2.0421652420597033e-01
      -2.8604949859404732e-02 3.2612916382742023e+00
      8.3479459076828119e-02 4.2537192828651822e+00
      -3.4612273906642443e-01 -6.9753416714695801e-02
      1.6940713557557237e+00 -6.4464134762709391e-01
      -1.8378350150202900e-02 4.4648373354167392e-01
      4.5282887290594758e+00 2.7845977064245298e+00
      6.8379426429538270e-01 7.4786069358933183e-01
      -7.7468512678099188e-01 -2.4588888340268484e+00
      -6.7207223705652632e+00 4.7362750390767889e+00
      3.6219710121722390e+00 9.1498688966212616e-01
      -2.6316348019140459e+00 4.7451665736623907e+00
      -1.5627483757370739e+00 3.2412827350763287e+00
      3.6072156658415183e-01 3.7866415049848077e+00
      3.9129287827635267e-01 3.8305018206680169e-01
      8.6443787806625194e-01 -5.8554471737340230e-01
      4.3947904511553419e+00 2.6374357692622064e+00
      1.7405448692123426e+00 1.2449000781725035e+00
      -3.7052856115323132e+00 -6.7925630731266855e+00
      -3.0211406489718223e-01 -1.2937402365050310e+00
      4.2893756677398831e-01 2.0607306509153303e-01
      -1.1483497225494528e+00 -5.1588312379537782e-01
      -6.8025602084485373e+00 3.6484089919783229e+00
      4.5511726143746047e+00 -3.6180168589025397e+00
      -2.0174538822803636e+00 -8.5629921261251618e-01
      1.7826970763938441e+00 -1.5175367246776450e+00
      1.1165614561506014e+00 -1.2143640940890758e-01
      2.8475905307148657e+00 3.9036607745300462e+00
      -3.9461046034257352e+00 -3.4422976955380054e+00
      -3.3983029571712953e+00 -5.5938378373260864e+00
      -1.0305063056744572e+00 7.1017115240986139e-02
      4.6581805348595600e+00 1.3528305719702634e+00
      -1.0833669537031165e+00 2.3963454434838973e+00
      1.6840537063784640e+00 1.1515394672557782e+00
      1.6438242454507639e+00 -5.9418430210301336e+00
      3.3507298710120192e+00 1.1817528580576633e+00
      1.3420289471660922e+00 4.5559733992883826e+00
      2.6220533252192406e+00 2.8589287936598757e+00
      -2.2840025175709302e+00 -1.7607346166545772e+00
      2.3275667325013245e+00 -1.0155662035588933e+00
      -1.3402307803044617e+00 -3.3626574007716797e-01
      2.9184974927367868e+00 -1.5004048588487233e+00
      2.1954134248781516e+00 1.3970336447071428e+00
      -9.6742162212749239e-01 2.1531527854531207e+00
      1.9000559900629750e+00 -7.2393722120978898e+00
      -2.0913763525108195e+00 -3.0326302322964733e+00
      5.8431151494238864e-01 -7.4253583779526899e-01
      1.4334630954282541e+00 2.5948974354267325e+00
      -4.5616888351745111e+00 -4.8298412242210365e-01
      2.5553185362939197e+00 -2.0332538553165649e+00
      -9.0918599388621701e-01 -1.9133698099116496e+00
      -5.9850182436237476e-01 3.1871091911220124e+00
      -1.2373278922111763e+00 2.0982661792860884e+00
      1.3275979829969715e+00 1.9360309107139033e+00
      2.9686880212681683e+00 -4.8724559803307015e+00
      -1.2040055315350955e+00 -1.2557447255550218e+00
      2.5431986429089433e+00 1.2929724817151487e+00
      -1.0593818313288239e+00 2.8005452820977665e+00
      -2.0248982999175840e+00 2.1507476287431770e+00
      1.8358747139633251e+00 -5.4247659703090649e+00
      1.0740020103307069e+00 -1.0437651249129019e+00
      -3.6862327156916602e-01 -1.0690552783011419e-03
      2.0286121915342625e+00 -8.5081656138620665e-01
      4.0998468569080848e-01 -1.8836222990848259e+00
      1.9542078056920358e+00 -7.7161468875752071e-01
      -2.9393765228458735e+00 -3.1167888843120201e-01
      3.1991286677313151e+00 -2.4308188649049254e+00
      -4.4214460161303099e-01 5.6142528256377666e-01
      -2.0755982128944050e+00 2.0028993505678701e+00
      4.8693050489442555e+00 5.3232615467150401e-01
      -6.1285949585764310e-01 3.4196155522883043e+00
      -5.4429507875784333e-01 -1.0833064968724948e+00
      2.9983269909792223e+00 8.0267946565871895e-01
      3.0682666421153209e+00 -5.9128170929651791e+00
      4.8983707290143341e+00 2.3146700366668913e+00
      -6.2363241512252428e+00 1.4675439684080307e+00
      3.0430962393551457e+00 -3.2670276235666922e+00
      -5.5897429216785657e+00 -2.7440895788710042e+00
      1.4854605820318809e+00 1.5294345667726896e+00
      1.7776041082923064e+00 4.8761119094581540e+00
      -2.4038883825056994e+00 3.5667089305603872e+00
      -1.3215903037966354e+00 -2.6893479960991380e+00
      2.5611886808457260e+00 -5.3870350242057508e-01
      2.5883269693961058e-01 -7.6396777475428932e+00
      -2.6417470447995778e-01 4.4297677124589951e-01
      -4.4170515980607208e+00 2.8288074116626736e+00
      3.8416642648967589e+00 7.4390007339175102e-01
      -7.5250755874705932e+00 -1.1189816900336194e+00
      1.4611189697685056e+00 1.3339739351838975e+00
      -5.6894811739840074e+00 7.2777854146068570e+00
      -3.4736711055052161e+00 6.8322444332112653e-01
      6.3988781820752272e-01 -2.7994562970475751e+00
      4.4429824602702284e-01 4.0961345252171821e-01
      -1.4103150828936117e-01 -5.7151266200169175e+00
      -7.2904167310204206e+00 -4.8800967763295322e+00
      -2.8497622228354205e+00 1.0529367640041860e+00
      1.4415408193796175e+00 6.1915372103329880e-01
      -8.7392043723414936e+00 -2.9822853253349906e+00
      3.1000716714000016e+00 -4.0217322536183520e-01
      -8.5946462418397704e+00 1.2291281029228628e+01
      -1.7501340830050758e+00 1.2061121554213556e+00
      -2.6549512763405652e+00 6.8487484533855655e-02
      7.2460119308409776e-01 1.0731307688267180e+00
      -3.2397831173736193e+00 -3.2075688103718192e+00
      -5.3277515377585178e+00 -5.7778004742409257e+00
      7.4522276171497748e-01 8.8199403832693724e-01
      -5.7348410123187465e-01 2.5694474697917853e+00
      -5.7248199553044046e+00 -3.5738091381759034e+00
      2.4309376074097946e+00 -2.8419483573314710e+00
      -8.8417043427292175e+00 7.9575835998627920e+00
      7.7418802315808422e-01 -1.6254481534260381e+00
      2.3207421883236581e+00 3.7382772327431907e-01
      1.2153346038765813e+00 2.6549282847920721e+00
      -3.9668005110566766e+00 -8.1049100043859157e-01
      1.4645447316672306e+00 -3.2888441842093301e+00
      -2.1510450603302633e-01 -3.7238488969095346e-02
      -2.4272102495813078e-01 6.4629649149603923e+00
      -1.3943040956691362e+00 -1.2586740783903281e+00
      -5.5870208304507274e-01 -3.9808303762693789e+00
      -4.4876175296888503e+00 2.2454628850934006e+00
      3.1637808878648737e+00 -1.6463721281742572e+00
      2.5280479984483872e-01 -2.0054743511677109e+00
      3.3277783379643255e-01 -1.5921290182305219e+00
      -1.7723022974069347e+00 1.5819390468598595e+00
      3.4239937067821504e+00 1.3431693241611147e+00
      7.8398670835078255e-01 3.9140196579774580e+00
      1.9751701756873692e+00 4.5225844290983019e+00
      3.0185816845702713e+00 3.4975008459449430e+00
      -2.7518475692643771e+00 -4.8640386482449705e+00
      2.6264268814033798e-01 -4.1152422144844891e+00
      3.4177883209078215e+00 2.5350726825420855e+00
      -1.2352243017927946e+00 -2.3627431760745905e+00
      1.9148464463938046e+00 1.5087129915229496e+00
      2.5994648845978086e+00 3.4723771673345483e+00
      2.4028581587153806e+00 1.6575268551143336e+00
      3.8165297362495942e+00 3.7208798340746081e+00
      1.0608732041508169e+00 6.4547237430605779e+00
      1.7026033435572698e+00 9.7654129539474148e+00
      -1.5375219248171166e+00 -5.2372972619744349e+00
      -3.4525774272341034e+00 -5.4444266916241908e+00
      4.1728413860910045e+00 3.3120226356232565e+00
      -4.9876087137803777e+00 2.2660987927110587e-01
      -4.1044832185333968e+00 1.5735239370146342e-01
      2.7582329355119430e+00 5.2978051562452562e+00
      1.6599874367538365e+00 -5.7114703133642108e-01
      4.2764855737935887e+00 2.7045826623370166e+00
      -1.5250148723463580e-01 8.0598579166080708e-01
      -1.0726487308812529e+00 8.0175300021335101e+00
      5.4623339397241233e-01 -3.0283722893938614e+00
      -2.6165160585131466e+00 -2.0229978909076656e+00
      4.7843098843504767e-01 1.1391834741660758e+00
      -2.0725809635344903e+00 1.4325497192574441e+00
      -5.3311097721933587e+00 -7.7920538822760610e-01
      1.9048490450436049e+00 4.1984922172832855e+00
      -7.4211486296766127e-01 -4.6930159746724218e+00
      3.4444608012659219e+00 7.5972104769554949e-01
      3.6405588587175854e+00 -2.7724219516433415e+00
      -6.0533289370236298e-01 9.1367200048107033e+00
      -1.5783036700082003e+00 -1.7192398172980861e+00
      -6.8376652419761754e+00 -4.9816580571001512e-01
      4.7666713502100855e-01 -7.2460056225308467e-01
      -1.1494243886356157e+00 4.2002799445495400e+00
      -6.0535387608122795e+00 -1.2851454219548506e+00
      5.4514881468488499e+00 2.6405869125251415e+00
      8.0404709530817686e-01 -4.5972222670131675e+00
      3.7550488749960440e+00 -2.4086287213959388e+00
      -2.3413901211223365e-01 -2.3703825061861328e+00
      -7.6436966052179622e-01 5.5705517929358175e+00
      -2.0789087266436899e+00 -1.4416992574306913e+00
      5.5668012363387753e-01 4.4718432533177586e+00
      -1.7768780956310624e+00 -1.8833870620493007e-01
      -9.1332455339272689e-01 2.7332703805005583e+00
      -4.3418723938600285e+00 -5.9245565013583268e-01
      1.5401286327264168e+00 6.2895926219581577e-01
      3.9215755453958590e+00 -5.8118506395270542e+00
      7.5301718897811065e-01 -2.0891808470209310e+00
      4.2640567392844506e+00 -2.8729166279147096e+00
      2.4381930159170486e+00 1.0282757366444084e+00
      -4.9305315189938703e+00 1.4215174333522593e+00
      1.4758377946479446e+00 2.7604282666263985e-01
      -1.3627478534323283e+00 -1.0853780839512026e+00
      -6.8571677588085056e-01 -1.5772020457885212e+00
      -2.1637727095542734e+00 -2.0348148460254087e+00
      -5.2151405402327711e-01 -3.2642222665027525e+00
      2.7846134703681016e+00 -1.7342816669263099e+00
      -4.6535238755029035e-01 -2.2824568946889539e+00
      5.3670999274182067e+00 -9.2101012620507117e-01
      -1.3512213180926018e+00 -3.2526636535562253e-01
      -4.0892745211157369e+00 2.7765968598621225e+00
      1.4411075203908548e+00 -2.0490113195148393e-01
      -8.8341784751933106e-01 2.2871102641194128e+00
      3.2927292795818225e-01 -1.6941523882949339e+00
      -2.2090747110697908e+00 -2.8770115078801886e+00
      2.3572936832342344e+00 -2.6457655786314089e+00
      -2.2902416379710959e+00 -1.3827364544814256e+00
      -2.1633836154538817e+00 -1.7007025632214445e+00
      2.0830436142426215e-01 -2.1803392769614720e+00
      -4.3258727130149595e+00 -4.1867633847286720e+00
      -3.5787563664497268e+00 1.1877736956013943e-01
      -1.7243973087078732e+00 1.5078340333471123e+00
      -4.3894337124949381e+00 5.1929278930110010e-03
      -1.2758021099853458e+00 -1.6291623763698431e+00
      -1.9432481667649860e-02 9.4760163645511797e-01
      9.6713559502315485e-02 -2.4733172714606364e+00
      2.8914613479652268e-01 -3.2896350923394526e+00
      -3.7157546439378155e+00 8.4798461414915804e-01
      2.5918532402288492e+00 -1.4441400605083250e+00
      -2.8775538928859579e+00 -4.8524116230545324e+00
      -1.1637618499069824e+00 7.7391473833421232e-01
      -1.3217002657397598e+00 2.0715611701519565e+00
      -5.0267378157814369e+00 -9.1485927655662735e-01
      -8.5996518753291684e-01 -3.0418723803985195e+00
      5.3265224562905633e-01 1.1593499746578523e-01
      -4.6887020952664420e+00 -3.8275191493513336e+00
      -4.1201367792534790e-02 -5.6982656829564293e+00
      -3.7089884358832297e+00 1.7671513967251988e+00
      -1.3042612692408813e+00 -3.7447396675952080e+00
      -2.9312652445630811e+00 -6.0033519108481572e+00
      -8.1725658225296122e-02 2.5179440143484841e+00
      4.5438949567032688e-01 6.7540756051185002e-01
      -6.7697082348087012e-01 -2.5824853956196145e+00
      -1.1056325777921945e+00 -2.7261658945625333e+00
      3.1486983993351312e+00 -2.9796662918743200e-01
      -5.0681778286734378e+00 -5.1492563353566521e+00
      -6.9318476243781812e-01 -6.3519572310646200e-01
      -3.6592046278412211e+00 1.3367155233137962e+00
      2.3331483862178959e+00 -4.2083205855392092e-01
      -2.3487146299850323e+00 -8.6002059686993704e+00
      2.9847843290990252e+00 7.3572993753532023e-01
      3.4812747698937931e+00 3.1649697591032351e+00
      -5.7949865822016455e-01 -9.7550971226558270e-01
      -2.8013525420176393e+00 1.3860888358008190e+00
      3.1836003794556031e+00 3.7404592707127780e+00
      -4.4649196836046086e+00 -6.7726118058272755e+00
      -4.2248219428461979e+00 3.1143664414348421e-01
      -5.8424121204563235e+00 -4.5037747842022846e-01
      -6.3397537299609374e-01 -1.5662302792259692e+00
      -2.3385038105402143e+00 -7.0111179069947860e-01
      3.4262404093344143e+00 -1.0921384336123849e+00
      1.5790256922302219e+00 9.9812037475182203e-01
      1.9133510986918285e+00 1.4447921821722765e+00
      -4.7844657477703656e+00 3.5557563501269538e+00
      -1.6765846968483704e+00 1.8059965294399394e+00
      6.8181079232717698e-02 -3.6680049362255160e+00
      -6.5427075114710007e+00 -2.0144459469786247e+00
      -2.8324641767541174e+00 -4.5028902787088115e-01
      -4.8728550962407731e+00 1.0434999114283958e-01
      -6.9200624344689465e-01 5.7681939348568605e+00
      3.3154559810656448e+00 -4.7484440815218889e+00
      1.3415586736036069e+00 -2.0273658278209550e+00
      1.8157948054994280e+00 -1.1268490086857543e+00
      -4.2802027567252185e+00 2.7285271388112169e+00
      1.8371013492832078e+00 1.4947789184603746e+00
      -6.0776118346932717e-01 -1.9699911372681307e+00
      -1.8666026632173729e+00 5.6997822930661191e-01
      -4.2002386285537892e+00 4.2686291412960875e+00
      -5.7385348683947663e+00 2.5138484420576015e+00
      6.5725954205398063e+00 4.9657059189643986e+00
      1.4945761596929432e+00 -2.2504533974881262e+00
      -1.1875760270495284e+00 -8.9324658532142809e-01
      2.0468763597431892e+00 6.8544783086542393e-01
      2.7614714971590413e+00 2.0419351712443121e+00
      -4.2594803993866570e+00 -6.0731219813684012e+00
      6.0913393266603633e+00 1.8735152774416433e-01
      -4.7225751911214431e-01 2.4698736253573692e+00
      -3.8138314219809670e+00 6.3106490093778831e+00
      1.6666358064772548e-02 2.3916240824021513e-02
      -2.4661663928610772e-02 8.0191725033722482e-03
      -1.4307059798688231e-02 5.0678860698730906e-03
      -1.6529447948443101e-02 1.4188589328869072e-02
      6.1604000680726629e-03 -2.3971119958577339e-03
      2.2484497750795751e-02 1.0334456218732510e-02
      -1.0278321794742666e-02 2.3446294144175657e-02
      2.1224501135138706e-02 8.9568620927505064e-03
      1.5969441200594453e-03 -1.4487597598841566e-02
      1.0520745388599859e-02 -7.5102119077776798e-04
      -2.5217627932750120e-01 -1.8538570706161177e+00
      1.7010583879826630e-01 -7.1621934610140892e-01
      -1.2196469200785398e+00 3.2579089756530522e+00
      -9.9167536296681547e-01 -9.7498855606388568e-01
      4.5327997750249427e-01 4.3356215116922936e+00
      4.1951402278302324e-01 -3.2105411858274446e+00
      -5.9198421810661310e+00 3.7823944047425382e+00
      2.1208353877108174e-01 5.5595250205328584e-01
      -7.6357491158773383e-01 3.6917325973156939e-01
      -2.5031129041564655e+00 -2.6453680311775835e-01
      -2.7000911530786414e-01 -1.8738259631008516e+00
      -2.0131601426901025e+00 -2.4715398008474252e+00
      -1.3178201052171601e+00 2.2365620437317473e+00
      -6.9356799951293580e+00 -6.4220068038594746e+00
      5.3314938231373619e+00 -5.0638347216360780e-01
      -1.4513513874700539e+00 -5.6714428768741225e+00
      1.0121340011607362e-01 7.5797164029451736e+00
      -3.0957982249053857e+00 -4.2749652744433346e+00
      -3.4586935341180784e+00 3.1907006634133097e+00
      -1.7903615967478408e+00 3.2072854038639651e+00
      2.3445195435152222e+00 3.1052382927961402e+00
      -2.3065846942001205e+00 -1.2608401311374464e+00
      -3.7455532897921180e+00 2.4196938742041758e+00
      -8.0099698359149585e+00 -8.2979021676825724e+00
      2.8166816623926918e+00 -5.8773836931839640e-01
      -1.5371261272280026e+00 -9.1409537465320323e+00
      -6.0605749537639142e-01 1.0385822906288391e+01
      -2.6896991958050833e+00 -6.9842716512394687e-01
      -1.6687964244833453e+00 2.5052478326357042e-02
      -3.2414335627463129e+00 2.3733397684078511e-01
      7.9050477130618613e-01 -7.0295283905708406e-01
      1.4843858515539359e+00 -2.9200379225529294e+00
      -1.3390467387586524e+00 -3.6554335044570885e+00
      -1.9473890175795285e+00 -8.3598994986592923e-01
      6.7001505896720497e+00 -5.8914300492041782e+00
      -7.4965472893001150e-01 -5.8772790142160813e+00
      -5.1626433664346978e+00 -9.9543931939711383e-01
      4.1760074261613545e+00 2.4401907132448040e+00
      -9.2784339787491055e-01 -3.0534744306249668e+00
      2.9767199126339610e+00 -1.8271988423561109e-01
      4.9026873604323367e+00 -4.8419587692737520e-01
      4.1093459261527929e+00 -2.7401235399479882e+00
      -5.6952223891622433e-01 -7.2534779183338420e+00
      -8.0200814330847958e-01 1.8033534064033313e-01
      3.1778975171894492e+00 -9.6575892368995717e+00
      -1.5938469971119322e+00 -3.6019658059274464e+00
      -2.2160917768093586e+00 1.8167522126924847e+00
      5.2125597782375044e+00 -1.1531082854225896e+00
      -2.5165992451217516e+00 -5.5801322293399886e+00
      -3.0374935310944688e+00 -3.5898337086063843e+00
      -2.1865920837243937e+00 -1.7510816306824811e-03
      -8.1687803786843283e-01 -1.6113168030342224e+00
      3.4990139454838456e+00 -7.0137327493335020e+00
      -6.4054865953937528e+00 5.3298394775826186e+00
      4.7049068856116500e+00 -8.5545164661024184e+00
      -6.0701785965609227e+00 -3.0791225012881979e-01
      8.6477516804826327e-01 6.1765458275813279e-01
      7.2701964694039649e+00 -8.8864651855406318e-01
      6.7550291104358200e+00 -6.7045094257725091e-01
      -1.8100803590945573e+00 -5.9062683354832117e+00
      -5.8121374766222775e+00 5.3593429226387557e-01
      -2.0229028743194530e+00 -9.3677101527505169e-01
      5.5979860424517680e+00 -1.3861546964608771e+00
      -7.0605235283080547e-01 6.6703750298079187e+00
      1.7034787708722028e+00 -4.4454071242548805e+00
      -1.8148350479506865e+00 -2.3704034956965003e+00
      1.2189473112417251e+00 -6.3232706496237414e+00
      7.8279702354056946e+00 -1.0160687980260339e+00
      1.5849286642721692e+01 -7.8133748778371515e-01
      1.5496263041783525e+00 -2.5266149883651647e+00
      -2.7982268583560312e+00 -4.9766814104137963e-01
      -2.5797819476988306e+00 -3.6318160076922990e+00
      5.6105634665684541e+00 1.1476359288634930e-01
      6.6624768816713109e+00 -3.0628244991689724e-01
      -2.0657439377446618e+00 -4.4860219240675109e-01
      1.1729799429108931e+00 -7.7924633284057443e-01
      4.2324902677629881e+00 -1.0690120158727735e+01
      5.2471789569160734e+00 -8.7645768202170027e-01
      1.3824783517419130e+01 1.3486983446546470e+00
      5.2557469589665640e-01 6.4838049775445883e-01
      -9.6582930242814569e-01 2.9891744923366786e-01
      -2.7308244492466005e+00 -2.5678410166138987e+00
      -3.6880803709659638e-01 1.7584431263046609e+00
      1.0395307145161604e+01 -9.8261420477067896e-01
      1.9630394817150171e-01 1.5922180330057836e+00
      1.8736374397606272e+00 -4.1819784204133563e-02
      6.0010974368943593e-01 -1.0276454044256450e+01
      3.1988770090368557e+00 2.7149056916162193e+00
      7.4142353946126667e+00 -5.3118648859847770e+00
      3.9485693632760999e+00 2.2447819688268509e+00
      -9.3963897097364180e-01 7.7153457886298371e-01
      1.1334366404752458e-01 5.1944729575838422e-01
      -2.0166023750788851e+00 2.1566645075825277e+00
      4.0570595786520443e+00 8.1545743427223816e-01
      5.4637392509147231e+00 4.0736346398634300e+00
      -1.9057410529997494e+00 -2.7965406179674619e+00
      -4.2857047919214759e+00 -1.0586770241038028e+01
      1.0025456650656426e+00 2.3631385778910592e+00
      2.2164498789699842e+00 -6.3744095836498920e+00
      4.5896018036424486e+00 -5.0445558031325721e-01
      -3.7512433584053602e+00 -3.0328958272451706e-01
      -2.3102547339858552e+00 -5.6129617819539339e+00
      -4.9187595196366569e+00 2.1119851885521221e+00
      4.9054988759945317e+00 1.9079739186712388e+00
      8.1359687454051457e+00 5.3583235619392244e+00
      -1.6977959154825457e+00 -8.2065257456733498e-01
      -4.2185742421945598e+00 -9.4292161030748822e+00
      -4.0936628446487044e-01 1.8951745930198898e+00
      -1.5360830063060629e+00 -1.0367349560644716e+00
      4.3160472314398257e+00 -4.1851952515782456e+00
      -5.6246561128952299e+00 5.1541758697409419e+00
      -5.8125859428842777e+00 -6.5533208502411036e+00
      -6.6128362512269057e+00 5.4761940417042005e+00
      -3.5588754518707399e+00 3.0859411473209915e+00
      1.2890052311959069e+01 3.5487206597475658e+00
      -9.8646691818125920e-01 1.4600456950183773e+00
      1.4562625959304580e+00 -5.9860177454749310e+00
      -3.7869360633854671e-01 6.0072843056770897e-01
      -1.0779257404710951e+00 3.0090067098107327e+00
      2.2710024958916333e+00 -6.7601336392438069e+00
      3.4093578685680342e-01 5.4023444327640915e+00
      -5.4925900516226109e+00 -5.6308306151142062e+00
      -7.4746915093602544e+00 4.2693354409840616e+00
      -1.6535621711203838e+00 -4.6485051563719528e+00
      1.0689038927593115e+01 4.0027148489626194e+00
      3.8779872145325083e+00 4.4436357506035025e+00
      1.0494133277074848e+01 -1.0248393318935127e+00
      -2.5274005123241627e+00 2.5684140213006397e+00
      -5.7020739408857790e-01 6.1883920293938175e+00
      3.6359954572350155e+00 -6.7212968303882787e+00
      4.6235608707354969e-01 1.8702130867033089e+00
      -2.3450657717816674e+00 -3.4846040599356627e+00
      -5.2063204370728675e+00 5.5337412190746882e+00
      4.7344339558747706e+00 -9.4448331587804528e+00
      1.6542296593076264e+00 1.1562518934388111e+00
      6.7006790535780363e+00 5.7422493727036601e+00
      1.2606634987792866e+01 -1.5557260819438501e-01
      -4.7059267579825947e+00 4.2561326565713236e+00
      -3.3520493487069327e+00 9.7781232241912459e+00
      6.7883467783631399e-02 -3.3622110283233155e+00
      3.2749399851319150e+00 -5.0630205982219367e+00
      -4.0931796438694876e+00 -3.3330869738868172e+00
      -1.7440385703207808e+00 6.2483038163973772e+00
      7.5012268653576015e+00 -5.7010411193757946e+00
      1.5604097326470385e+00 -2.2840424237274254e-01
      1.0789657839269156e+01 5.6581124492034780e+00
      5.4751911117478436e+00 -3.6048065269071397e+00
      -4.6495654615496465e+00 7.0044052944679818e+00
      -5.4607164589733932e+00 9.9433071103459607e+00
      -7.5108925632160584e-01 -2.2991576760295409e+00
      1.6285143953111902e+00 -1.0835873598786508e+01
      -5.5137903352313691e+00 1.4396696008497756e+00
      3.1255567574237140e+00 1.9038409373218275e+00
      2.3433454316110942e+00 1.4287922079318334e+00
      3.1723821136540171e+00 -2.8317802536508445e+00
      8.6779932507692354e+00 2.2420700930207045e+00
      3.7776166101403130e-01 -8.7821327386385590e+00
      -3.6537825574341385e+00 4.8255801857956513e+00
      -2.5790757045863750e+00 8.8377869362007537e+00
      -1.2298242689466925e+00 1.9728286740350884e+00
      5.4338465677038239e-01 -1.1241766864107285e+01
      -6.2917970634669711e+00 -4.2646423042726522e-01
      -4.6196226723826159e-02 1.9462557498812045e+00
      2.9271187306831230e+00 1.5468609598173935e+00
      3.1565614260313088e+00 -4.4011993155987348e+00
      6.2962626139994651e+00 -3.0553508232691371e+00
      -3.6489064939344082e+00 -9.9262761113022453e+00
      4.6572269350750720e-02 1.5176860732088748e+00
      -1.8114225085771962e+00 7.4175870394539780e+00
      -5.2698254602438759e+00 5.7626017859350744e+00
      1.6020126054615405e+00 -1.0339705477462822e+01
      -4.5967355410226256e+00 -2.5093906339002832e+00
      -5.3723945532805550e-01 -1.2381228693662076e-03
      5.9780985407837610e+00 1.3000861119808973e+00
      5.7121382195339594e+00 -5.7056451483703094e+00
      4.4830267494727396e+00 -9.9612330018654323e+00
      -4.0629854816857209e+00 -3.0338157642626586e+00
      1.7186624128973542e+00 -2.5713022777862431e+00
      3.2542691109093993e+00 3.7508454138408878e+00
      -4.4982513613027555e+00 7.7900630620171132e+00
      2.6025504617473216e+00 -6.0504942531263906e+00
      1.5241151256462665e-01 -2.1389048844945857e+00
      -2.1190769970132921e+00 -3.5051510199235918e+00
      2.7951659208120962e+00 -4.1144606123119916e+00
      2.1410618386777074e+00 -3.6787984328132866e+00
      -4.1636228265264374e-01 -9.5940565332191916e+00
      2.6523172497517646e+00 5.6729214594411621e+00
      2.3615918677036243e+00 -2.1148053070419364e+00
      1.6710931076957141e+00 -1.7050344899842365e-01
      -4.1775626767787069e+00 4.9945128052449004e+00
      5.0678337308342734e+00 -4.0350793248160315e+00
      1.0549053289556687e+00 -2.5436175156093119e+00
      -9.7327755399744886e-01 -1.6310514709340065e+00
      1.9849731684961394e-01 -8.6300585526382516e+00
      1.7878969657138097e+00 -2.6093654623414992e+00
      -2.0178331112854369e+00 -1.0460402593100545e+01
      2.3702536578720461e+00 1.1344159270348460e+01
      4.6074239349458574e+00 -4.9204888910412707e+00
      4.5004190610816783e+00 -4.8601784524219571e+00
      -4.7876423779974715e+00 2.0993840410321654e+00
      4.5995610346968467e+00 1.9314080160351590e+00
      5.5833487867433307e-02 -4.0790917457643427e+00
      -6.1736983314481197e-01 -1.9794415890313293e+00
      -2.0551814875470615e+00 -6.3097867826326244e+00
      1.3077505984807207e+00 -2.9440968746969762e+00
      -3.8001763794446801e+00 -7.9891410301739949e+00
      1.9744650843871263e+00 1.0327623841297541e+01
      5.9893767738548034e+00 -4.0833942113715160e+00
      1.4294640575418089e+00 -5.9914846404158633e+00
      -2.7138815426875169e+00 3.1346375076604621e-01
      2.0410381388716452e+00 2.5563081743806197e+00
      1.9351580296240325e+00 -2.1051150023958694e+00
      1.1873627739544515e-01 -2.4060917430794193e+00
      -5.3766580771327570e+00 -2.4266013165226541e+00
      -2.2646013620137451e+00 -4.2341116647335086e+00
      -3.7087074810526728e+00 -1.7887002479897101e+00
      -2.3652472621736431e-01 2.8760585796152216e+00
      5.0866566183596076e+00 6.2380574066382788e-01
      2.6186101691304602e+00 -7.9536833057152121e+00
      -3.6898531582045549e-02 -2.5659850709885577e+00
      -2.1233194672406923e+00 3.0812181234415568e+00
      5.0809661710125500e+00 -2.7160889505709269e+00
      3.0856022923934145e+00 -5.8127931239766752e+00
      -1.2459925678413319e+00 -1.5126082352461558e+00
      1.9396508696267922e+00 -8.4001071632891247e+00
      -3.4031921021678664e+00 3.3722246964814775e+00
      -1.3736704930608747e+00 -2.1603921641019195e+00
      3.9692915149053194e+00 1.7763585392575358e+00
      2.7536860812501289e+00 -6.4344051303047163e+00
      3.7313169265724788e+00 -4.2033173325947786e+00
      -2.6465856714831979e+00 1.7233955632743874e+00
      5.3414114545407578e+00 -2.5377219016810137e-01
      9.5809476509566815e-01 -1.5507582789281356e+00
      -1.3468782186084292e+00 -3.9129776093741282e+00
      -3.5798661192429191e+00 -6.9707185060892796e+00
      -4.2639037278004128e+00 5.0967703526953911e-01
      1.0576944913802120e+00 1.6354859389181244e+00
      1.7147457499331942e+00 -1.8243704388868931e-01
      4.8550865843878803e+00 -1.2407314610700222e+00
      1.8091648419791724e+00 -3.8199159257102107e+00
      -7.3476093163255536e+00 2.9761514204945025e+00
      8.6860348195303783e-01 4.7976567690526011e+00
      -3.0740781543283702e+00 2.9423384573465561e+00
      -1.7111638781283633e+00 -5.8424070573920139e-01
      7.3650966939084506e-01 -3.0028148199630716e-01
      -3.9114695806708504e+00 -4.9796502229152828e-01
      -4.5642878054169636e+00 -4.0471078980470576e+00
      9.5935163570823612e+00 5.6435677908686763e+00
      8.9705939616827930e+00 4.3554863753277999e+00
      3.6031288298767841e+00 -2.5655330099291063e+00
      -3.3704358017411900e+00 2.8699711685329943e+00
      7.5247332047018523e+00 6.9024186370263507e-01
      -6.1638757482958539e-01 2.1572593139221508e+00
      5.4072887720911673e+00 1.4947755692171447e+00
      -2.2824332984024336e+00 4.8905764031883168e+00
      1.6980355893308525e+00 -3.8159636711222791e+00
      -5.6684224214489669e+00 -5.4265371433070042e+00
      9.6562999162132854e+00 2.7645530568953558e-01
      7.3418986140716580e+00 -1.6443805041077779e+00
      2.4036997012213415e+00 2.2597435697163934e-01
      -1.8505291741081407e+00 2.1171596257033047e+00
      1.5204415566119280e+00 3.9601817711508027e+00
      4.7636505095572934e+00 7.1809239267152813e-01
      4.4023462577855810e-01 -2.3037196176648074e+00
      -2.5642304520244923e+00 1.0704451151905539e-01
      -7.7852072397518624e-01 -5.1099429504550653e-01
      -2.1137179711334482e+00 1.3700924483014996e+00
      2.8730839319078911e+00 3.7971290454897306e+00
      3.7491456143117112e+00 -1.8326477355010506e-01
      7.4908082461123723e-02 1.0591178562024495e+00
      -6.5158574341072795e-03 1.6861501692798406e-02
      1.2716446804774965e-02 1.1199911967207953e-02
      -1.8967217382268229e-02 1.0871854654010341e-02
      -1.0942783689134532e-02 2.0602450581676715e-02
      -1.1113021993561361e-02 1.5179772095855937e-02
      2.3004681588955040e-02 1.7215281221225238e-02
      -2.0018755168149556e-03 1.3426888671516154e-03
      2.0973675068275237e-02 2.2979342894977927e-03
      -1.0389573488429650e-03 -5.0733031571296378e-03
      1.0712261204723036e-03 9.0080588394152172e-03
      1.9310762489138589e-01 3.0205709375550804e-01
      3.0715473021641260e+00 3.7813024632066462e-02
      -1.5606528061467579e+00 -5.8416933243833471e+00
      -4.0028419774867254e+00 9.1522915609836984e-04
      -3.5196378893217459e+00 3.5526418245106806e+00
      -7.9888849369630310e-01 -4.2072527832223230e+00
      -2.6807559308337110e+00 3.7615498799669451e+00
      7.7948680743518950e-01 -5.3463697625314011e-01
      -2.8354044620480297e+00 4.8139768176570117e+00
      -9.3161391848441322e-01 2.8895723662535350e-01
      1.2846639838443612e+00 5.5255935558865199e-01
      -1.5429491234181549e+00 3.3295142820359600e+00
      -3.4179544890973506e+00 -3.8399393230268402e+00
      -4.7696335025915246e+00 -5.8059921810337807e+00
      -1.6656761960359083e+00 -3.0923716777363381e+00
      -1.0597016964990125e+00 -4.4409833386518338e+00
      -1.2290305978325664e+00 4.1453978964330398e+00
      -1.3714683928646751e+00 -3.1262615549267070e-01
      -1.6317468650915146e+00 -2.0424737736806802e+00
      -1.5012898461478006e+00 4.6781717525390345e+00
      -3.5537566126436532e-01 9.7104755132522236e-01
      3.1236719727842049e-01 -2.9741669887800426e+00
      -2.3064537304016075e+00 4.4743033130316281e+00
      -1.0334360077210898e+00 -3.5370420102475104e+00
      6.7859079104014137e+00 2.6256308548418748e+00
      1.9022283666268296e+00 -7.4734560797489513e-01
      1.8951392874092183e+00 1.4741378885510297e+00
      2.8192032205057538e-01 -1.8459977133456335e-01
      -1.4057622493335651e+00 1.5961308957390687e+00
      1.6561249992221644e-01 4.0261842590267163e+00
      9.5867525319975248e-04 2.0039359827709919e+00
      4.1642780824980532e+00 1.4226703218991086e+00
      1.9355739254701934e+00 2.1792957241078232e+00
      -2.9677930163375543e+00 -2.7971103962325605e+00
      -3.4692467065713637e+00 3.2082128220596897e+00
      4.1413829710248828e-01 -7.9813459128948205e-01
      9.2021737386120872e-01 -8.1305935270179527e-02
      1.6831814800348896e-01 -5.7380671179794118e-02
      -3.5528937215873574e-01 2.8672897409126725e+00
      1.1167116703930466e-01 1.1670798960218562e+00
      2.9397046936288027e+00 7.9576322925930720e-01
      1.3039452535012619e+00 2.3392510205717252e+00
      -1.1383952024828674e+00 -1.7172541064583411e+00
      2.0333917723595762e+00 1.5269547170572229e+00
      -1.8504923488986999e-01 3.9327504856885236e+00
      -6.8411960266421579e+00 1.7256400099112872e+00
      -3.1441255352472499e+00 -4.8188774848424160e-01
      -2.1193277410117148e+00 -5.0961391232238695e-01
      1.7965983404525347e+00 -2.0393954638831522e+00
      -2.6317231404871122e+00 1.1808556949851989e+00
      4.7294158220477716e+00 1.3991323986437509e+00
      5.0100877096356100e-01 8.5321029676086777e+00
      5.8382397588157930e+00 1.4681451413611823e+00
      -2.2054257829219446e+00 3.1602153276657901e+00
      1.8458095206193177e+00 -8.7608219855501568e-01
      -1.3117739693594677e+00 -4.9810043006518887e+00
      -7.3317156110821049e+00 -4.0258299550411083e+00
      -9.1210131735113684e+00 -2.1512167171438521e+00
      -5.0035347854477799e+00 2.8490020283859803e+00
      3.5557242317406015e+00 -1.5996981892296434e+00
      -7.1046041232924662e+00 -3.9130690177794434e+00
      -3.2728976291557901e+00 -8.6878925211364533e-01
      7.7081048070738045e-01 7.8104153077917644e+00
      -7.4575215780273645e+00 1.3892704212658368e+01
      -2.5502436885815025e+00 3.5791956829618696e+00
      1.1170944835377388e+00 1.3629680142729830e+00
      4.0080906620316812e+00 1.4988838734477081e+00
      9.3993433726817504e+00 -3.2927091003797422e+00
      1.3704258827211934e+01 -3.4891965810474881e+00
      -6.8300822391287124e+00 -3.9321538103771543e+00
      -9.0679686528796410e-01 -2.9854670148008862e+00
      2.2863669926376446e+00 3.6171525352004408e+00
      -8.3023550070190388e-01 -1.1273857257294986e+00
      -1.6577163420306222e+00 6.3729787324081821e-01
      -2.8292659050305571e+00 -1.1094640446096212e+01
      7.7017521926251764e-01 3.0400889365680253e+00
      -6.0462087541294929e-01 -1.3511012962942364e+00
      -6.1142960271868123e+00 3.8645168595194814e+00
      3.2839184979286401e-01 -4.4196508603618092e+00
      5.4643303857235361e+00 1.7690636802303552e+00
      -1.2269122432891604e+00 5.3298297417855078e+00
      -5.2925289346469482e+00 -8.8156650675033621e+00
      4.3505290286387446e+00 -2.7144452767709804e+00
      -1.2215102682998360e+00 1.5243431239600461e-01
      4.4368544695806929e+00 5.3717301792020598e+00
      -3.4096836980639038e+00 4.9152623359299543e+00
      1.4993257237302466e+00 -2.7897801012281152e+00
      -2.8909396985062394e+00 -2.3287661367726362e+00
      -4.0251562000953571e+00 -1.3671216990770589e+00
      -2.8772498274930802e-01 -3.0155388717564717e+00
      -5.9351581308020922e+00 1.2839666757574051e+00
      2.7823423656124460e+00 -2.9600511034949819e+00
      -1.0938890750376802e+00 2.3320938373858109e+00
      -3.2748499307648697e+00 7.8443803574517779e-01
      -3.6583661016296056e+00 2.7244170742669827e-01
      1.2421048249192710e+00 -1.6979557118940505e-01
      -2.7516867341525026e+00 2.3533922543624568e+00
      -3.8172698118228507e+00 -3.1482561603758413e-01
      1.0604033943819942e+00 1.4355005759710529e+00
      7.8207733241521660e-01 1.5015226731963083e+00
      1.2486821087719970e+00 -3.4975184020656389e+00
      -5.0724694324642918e+00 -6.7490434831604951e-01
      -2.6620672478574909e+00 9.1505649507471833e+00
      7.0481604453921927e+00 3.1384222511229605e+00
      -6.1252806981362422e+00 2.5851509880916805e+00
      -3.1558108560537459e+00 2.7733292203675886e+00
      3.5815807856138901e+00 1.4495388061379235e+00
      2.9138413162635985e+00 -4.1392248871476953e+00
      3.8563933071253453e+00 2.4200122600968395e+00
      -6.8849125569166461e+00 1.8759589332784412e+00
      -2.7399523806704633e+00 1.0932061306789222e+01
      -6.1201360359870094e+00 3.0410002742962008e+00
      2.1873022521408156e+00 -1.6035931945460892e+01
      -9.8887514885014998e+00 -3.0518181045391662e-01
      1.0526360060851445e+01 -8.7427381368334771e+00
      4.6208906572550418e-02 1.9222493587359142e+00
      -2.3228017324392343e+00 6.1795031104533860e-01
      -1.0091991872146506e+01 6.3190237770813020e+00
      -2.7702562824792010e-01 3.2602187830713660e+00
      8.0784575346213749e+00 -3.3814445856519573e+00
      -1.1028274403040874e+00 -1.8097485912323905e+00
      4.1872380355121726e+00 7.9196248631993322e+00
      -1.1557491204255654e+00 2.4953124190732741e+00
      -3.2262439904326996e+00 3.8428519644026760e+00
      4.7097124539251602e+00 1.9216411551299444e+00
      -3.2353105725384310e+00 -1.5089169154586795e+00
      -4.9816811377855039e+00 -4.9893979904452159e+00
      6.2919360557286090e+00 -4.0171876761906669e+00
      2.2497277766863397e+00 4.5074134358576003e+00
      9.2248718854714307e-01 -7.5048323439979403e-01
      2.6628923484629743e+00 -6.7272281162554659e+00
      1.6625146943686187e+00 -4.1618986065030033e+00
      -5.3368568090920823e+00 6.6543148489569299e+00
      2.6938745746996826e+00 -4.6641682387727039e+00
      3.2130640398799293e+00 -4.5005182656315421e+00
      3.9303209275210177e-01 -1.9848940623371742e+00
      -7.8532283445457485e-01 2.1837932440394794e+00
      -1.8047612702860212e+00 -2.0014935901177932e-02
      2.0625919942330908e+00 3.1170762342242329e+00
      -1.2090875996481527e+00 2.2143411531138737e+00
      2.5262786586034824e+00 4.2247303243953036e+00
      1.2967625359327881e+00 7.2670554877405746e-01
      -3.7645224706016706e-01 -6.5054197679863819e+00
      -3.6011973660169310e+00 -3.1265443159913964e-01
      -7.3056804814736276e-01 -1.2046693538174333e+00
      -5.3746803586379743e-01 1.5732104571088901e+00
      -8.7745039061604457e-01 4.6938089295183980e+00
      5.8918527539438594e+00 2.7642894358185290e+00
      1.0885783004965064e+00 1.7866590797396477e-03
      -8.8606786308916818e-01 -3.9990548409974593e+00
      -8.3278210913294537e-01 -2.9654758862061625e-01
      -2.3570748962830117e+00 2.6219570720912087e+00
      9.3452511522924664e-02 -8.4979577272568338e+00
      -4.3940732114133860e+00 3.5309656203075481e+00
      5.5985209251272847e+00 -1.7271621351902502e+00
      -4.5854069356396261e+00 -5.7622046363658344e+00
      3.3392835448556997e+00 3.0273209643602372e-01
      -2.2120111776962443e+00 -4.8284794122710140e-01
      5.0993762683697597e+00 -6.6906495752642074e+00
      -2.3791169513167687e+00 1.9286675115338456e+00
      5.3092438604131487e-01 -4.8533819624840371e+00
      7.6679223112569839e-01 8.5036133830570559e+00
      3.4958915404542470e+00 2.1865492220481832e+00
      2.7657806801556299e+00 7.7536271485065029e+00
      -1.3324954383118197e+00 4.3746586603228836e+00
      3.6169156655782730e-01 -1.2737359748325394e+00
      -5.5533907776440330e+00 5.5200027898012627e-01
      6.7834191814782393e-03 2.1330544631322175e+00
      -5.2219628050563465e+00 3.0840134470479050e+00
      4.6310572574116436e-02 1.4218223633450933e+01
      7.7724207925241240e+00 2.6016988670196556e-01
      1.5232458518244130e+00 4.3394643364523082e+00
      -4.2197819310774562e+00 -5.7569403377534334e-01
      -5.9178624091221987e+00 2.1314504799030662e+00
      2.0086133838671607e+00 1.5362281740747163e+00
      -7.5529779691837415e+00 -1.6487364213882300e-01
      -4.4677926145661573e+00 1.1134412169387412e+01
      8.5279631446121620e+00 -1.0694326833873933e+00
      2.0489268932422506e+00 -5.1752055096096372e+00
      1.6135185801808734e+00 -9.9819911107271633e+00
      3.8101226785128439e+00 -4.9986886472205390e+00
      -3.1707209038667367e-01 4.2432462549927266e+00
      3.0510949208391491e-01 -3.7121210025743299e+00
      -1.0144641779558889e+00 -6.2442688876859653e-01
      -2.8742096392048770e+00 -4.0468670785910179e+00
      6.4417251828918864e-01 -2.6307908553918025e-01
      -8.8177622347964224e+00 2.7279481201809550e+00
      3.2087128839283570e+00 -1.9549633095370882e+00
      -2.7611908709386443e+00 -3.3063797292525563e+00
      -2.8421795468420732e+00 2.3320788511224215e+00
      5.0298802790613173e-01 3.7181969750041455e-01
      -1.5131302239238202e+00 9.3210500901133508e-01
      -5.5681558486388194e-01 2.8334572694087004e+00
      -1.2927794310687140e+00 -1.7683721214182289e+00
      1.0734460460281023e+00 3.3278622073305653e+00
      1.3678503784025591e+00 1.7594600629227630e+00
      -4.9246610503022819e+00 1.3146817805483695e+00
      1.0763327945043471e+01 2.7207681843772985e-01
      7.9166288390682338e-01 -5.1906901370710223e-01
      -1.1372919423985564e+01 -9.9305827697136484e-01
      -7.9836569589488027e-01 1.2211479446012259e+00
      5.1237217032533069e+00 2.1702438199064780e+00
      -2.2273698939088654e-01 -1.7631027282914322e-01
      9.5063631719308050e-01 -9.0327983844186583e+00
      3.5091897073333849e+00 -9.2659134239066077e-01
      6.8061950842379710e+00 -6.7084254843822926e+00
      -4.8955225158985849e+00 3.2071803224134876e+00
      6.4973370466110367e+00 -1.5049720145887091e-01
      -1.8924368751199125e+00 -3.3262839335848513e+00
      3.9678139277834550e+00 3.0418416606558654e+00
      -3.5134813526611990e+00 4.4800135018543447e-01
      -8.2672856569106923e-01 2.1090248183437210e-01
      -2.5946759053150985e+00 5.0275030211814498e+00
      -5.2398803453005822e+00 6.3506192470443237e+00
      2.1077421508464633e+00 -3.7404712395112174e+00
      -6.7553510915451760e+00 7.9014231381883826e-01
      -1.9211291428457329e+00 9.3390298184879039e-01
      -8.0188954668630110e+00 -1.5521411636225908e+00
      2.6545834435128701e-01 1.7854189267213222e-01
      -7.3806601046619180e-02 -7.0602155073617068e-01
      -2.4075401504651999e+00 7.9849538331718650e-01
      2.6516462551740655e-01 -3.2206318580413180e+00
      3.8499785866702725e+00 -2.4685755919922077e+00
      -6.2147112544260030e-01 2.2260254551736978e+00
      6.2696221425239218e-01 7.2712206371802868e-01
      3.6881367011437969e+00 5.8062620316188758e+00
      4.8222819914056525e-01 -3.4666192029484790e+00
      1.8838556248460654e+00 5.2462266140903185e-02
      1.7621771116455267e+00 3.5411685022629178e+00
      -8.0752828231134022e-01 7.2800899699867061e-01
      1.1620361227022464e+00 -3.8892194057354562e-01
      -9.1943811094781380e-01 -1.6866813331702475e+00
      5.0328969354719810e-01 -5.6009518365993838e-01
      -1.1895271791649804e+00 -1.1156227497893452e+00
      2.3684107205945129e+00 1.1496805350486583e-01
      -6.1977723662692230e-01 5.9586637192959691e+00
      8.7598367106644634e-02 3.3624362856348422e+00
      6.3256649463877972e+00 2.8871167469817056e+00
      -4.9661032305081410e+00 2.3981780399647095e+00
      1.0995209907462755e+00 -1.6391007406772611e+00
      9.3603398484146467e+00 4.8993672496243974e+00
      -1.0788136948299083e+01 -8.2186465689218913e-01
      -1.1480492938296643e+00 1.3441022505131706e+00
      2.7169177241979017e+00 4.3446971065879740e+00
      -4.0524335572813621e+00 -1.2142801922326838e+00
      -6.3441772046992320e+00 -1.6082347903279297e+00
      8.5782844484827780e+00 -3.0312159046694026e-01
      -3.9915787396936246e+00 1.9537199431284855e+00
      1.1596946759923322e+01 -7.3476429289689413e+00
      -7.7375652080405155e+00 -5.8886268345523574e+00</_>
    <_>
      1.3708385348392763e-01 9.8455167112959235e-02
      2.8056570086821280e+00 1.8238670141818474e+00
      2.8028275483265208e+00 -1.6185118835750354e+00
      3.9179377905186941e-02 -2.0771218121128645e+00
      -6.7088014307013655e-01 -3.2206947458358135e+00
      -3.0794198780105013e+00 -1.8262217221187895e+00
      -5.2129511812294087e+00 1.8800254763091526e+00
      -6.2415895542862732e-01 4.8741149924668346e+00
      -2.3330560292837292e+00 1.8805123966564707e+00
      1.9720954021625905e-01 -1.8067891073020484e-01
      8.4396930473494258e-01 1.4817449417170323e+00
      1.5660397552409494e-01 1.0767319467512004e+00
      -1.4000587890636211e+00 -6.7376416859527680e-02
      3.3503572535512077e-01 2.8897858385985957e+00
      -2.4419538575380697e+00 -1.3462087419204685e+00
      -1.0602326875978230e+00 -7.7430031946557298e-01
      3.8571756568428390e+00 4.4865181297210235e+00
      3.9794298899381630e-01 -1.8781764893095334e+00
      -1.0823426315417668e+00 9.4153843773417634e-01
      -3.1580580274052203e+00 1.4282981481912362e+00
      4.2100116035993856e-01 5.1894400198849244e-01
      2.9045247666781187e+00 -6.6149342455807969e-01
      1.0836334953561833e+00 2.0289528271151696e+00
      4.7949875458132274e-01 -9.6209402620474471e-01
      9.2186629369854789e-01 -1.0738644562178807e+00
      3.9206007110238108e+00 -4.0375536767532552e+00
      -3.1625717450122357e+00 -2.3002747465474984e+00
      2.5923348618103890e+00 1.2495573321040770e-01
      3.1483030439164281e+00 2.2032003183490425e+00
      -2.3195046131259476e+00 5.4391223566102698e-01
      3.0204430373975630e+00 2.3433260058719729e+00
      -8.3362057760520047e-01 -3.1613862109507709e+00
      5.1228473977131617e-01 -1.3076794265512415e+00
      -1.0293853358205407e+00 2.9048901191363177e+00
      -2.8327743637491931e+00 -6.9862379222627935e-01
      1.9247285854350826e-01 -3.1668848042814024e+00
      5.2207145278534317e-01 -3.8580360774544422e+00
      -1.1025036507806449e-01 2.5836457522911771e+00
      -1.3953615206841219e+00 6.2480758506218603e-01
      3.9181591659681612e+00 2.7302370497243833e-01
      -1.7746186835164726e+00 2.0694997703356663e+00
      -4.5260829294311984e+00 2.3650248275667138e+00
      -9.5033090458874947e-01 -2.8098400760036033e+00
      8.2043875197331928e-01 -1.5567747349351562e+00
      1.9288458958004031e+00 2.4097490644729151e+00
      -1.2242701951218707e-01 -3.3291204841094206e+00
      -2.8730025651454181e+00 -9.3224841518030110e-01
      1.8486989117787875e+00 -5.3676402817386970e-01
      1.7780333994108439e+00 2.2561275883346825e+00
      -1.8897993770761201e+00 3.6354417074122471e+00
      -1.7075060900829222e+00 1.2806986617744978e+00
      2.8213224747573769e+00 -1.5041594068286968e+00
      1.4130072324584564e+00 -1.3960579350335622e+00
      5.8237196725674034e-01 -1.0619982830420054e+00
      -1.4121685315171713e+00 1.5816362239815593e+00
      -1.3610210685281097e+00 -1.4428090948230146e+00
      -3.3181927870605493e-01 3.1512276274707665e+00
      3.6132267364011268e+00 2.5080901002407048e+00
      -4.7846217816506362e+00 4.6145797593456106e-01
      -1.5908152494131087e+00 3.1612736289815868e+00
      2.2387739862679736e+00 9.6898054828672364e-01
      -3.3022827983172482e+00 1.2427228794901359e+00
      1.0341123331805280e+00 1.8411343873615662e+00
      -3.0292181655578970e-01 -3.2748928746183998e+00
      -4.1661107256851387e-01 1.7724107346294224e+00
      -7.9644060362009850e-01 -1.4831148133547090e+00
      3.4901539560404088e-01 2.7351030915680643e+00
      -2.8403983825239165e+00 4.5733989809051607e+00
      1.6298785000130145e+00 -1.5870775879774441e+00
      -3.9984222499247979e+00 -5.5374263391728062e-01
      2.2083704539692977e+00 -2.0052169480141115e+00
      -1.0799634453766931e+00 1.1893150653015727e+00
      -3.3711149300266032e+00 4.9671991447943981e-01
      1.1638418009915852e+00 1.8866466011697094e+00
      -2.0865930037250200e+00 1.1296723948590890e+00
      -2.0906017975937417e+00 5.7409790172337265e-02
      -1.7646149580525761e+00 1.1999693126119246e+00
      -4.4943270552978426e-01 -3.2076152180371071e+00
      3.2219238886603407e-01 -4.3366474822660324e-02
      1.0903577520893839e+00 6.6064681224195010e-01
      2.7197643468546193e+00 6.2988763738911857e-01
      -1.6416325313291975e+00 -1.0911152910215125e+00
      -5.7453302397089443e+00 -1.8346993665411715e+00
      -1.8593787255065168e+00 4.0901084670204602e-01
      -2.2113489372593036e+00 6.7980398153615527e+00
      -3.1240321910580908e+00 3.0168184266954623e+00
      -4.3905785177167783e-01 2.2632982640622523e-01
      1.0594999219075203e+00 -2.7625126487782672e+00
      3.9798403998535998e+00 -3.3076296502809965e+00
      -3.8784157154489693e+00 3.2393676106676845e+00
      -1.9239785587941540e+00 1.8331056045809326e+00
      -7.1479039743876682e-01 1.3766979058353108e+00
      -1.0276675080965096e+00 -2.0491424355128931e+00
      5.0748580924092035e-01 9.4868386418059603e-01
      1.2322479617678028e+00 1.3461067742378425e+00
      7.2324146201350159e-01 -3.2494056358085693e-01
      3.4807641406626835e+00 -2.7361314767322815e+00
      -3.1963685306755696e-01 -1.8110932652110987e+00
      1.4810449447663523e+00 3.5576930894499950e+00
      -8.1190698521042004e-01 -2.1638240602054468e+00
      -2.8845241079807728e+01 -2.4914234644416645e+01
      -3.1846129964622470e+01 -3.2459131548473614e+01
      -3.1104295241988400e+01 -3.3077611676785175e+01
      -2.4868384899431128e+01 -2.9084363011556903e+01
      -3.3496512957797876e+01 -2.9932727581091722e+01</_></weights></opencv_ml_ann_mlp>
</opencv_storage>
